<?xml version="1.0"?>
<opencv_storage>
<stage2>
  <maxWeakCount>5</maxWeakCount>
  <stageThreshold>-1.5404350757598877e+00</stageThreshold>
  <weakClassifiers>
    <_>
      <internalNodes>
        0 -1 113211 -3.5113595426082611e-02</internalNodes>
      <leafValues>
        7.5000000000000000e-01 -9.0276455879211426e-01</leafValues></_>
    <_>
      <internalNodes>
        0 -1 86277 -1.4339184854179621e-03</internalNodes>
      <leafValues>
        1.8322485685348511e-01 -8.0160778760910034e-01</leafValues></_>
    <_>
      <internalNodes>
        0 -1 124258 -5.5697467178106308e-02</internalNodes>
      <leafValues>
        3.3170294761657715e-01 -7.4548244476318359e-01</leafValues></_>
    <_>
      <internalNodes>
        0 -1 119341 3.0936644179746509e-04</internalNodes>
      <leafValues>
        -5.1651334762573242e-01 5.8488225936889648e-01</leafValues></_>
    <_>
      <internalNodes>
        0 -1 84796 -1.3484676601365209e-03</internalNodes>
      <leafValues>
        4.5484998822212219e-01 -6.3608491420745850e-01</leafValues></_></weakClassifiers></stage2>
</opencv_storage>
