<?xml version="1.0"?>
<opencv_storage>
<stage14>
  <maxWeakCount>5</maxWeakCount>
  <stageThreshold>-1.7028450965881348e+00</stageThreshold>
  <weakClassifiers>
    <_>
      <internalNodes>
        0 -1 123590 4.3241556733846664e-02</internalNodes>
      <leafValues>
        -9.0076333284378052e-01 5.2941179275512695e-01</leafValues></_>
    <_>
      <internalNodes>
        0 -1 117435 -3.9236601442098618e-03</internalNodes>
      <leafValues>
        4.9438214302062988e-01 -6.4079391956329346e-01</leafValues></_>
    <_>
      <internalNodes>
        0 -1 106644 1.3630051398649812e-04</internalNodes>
      <leafValues>
        -8.6811000108718872e-01 2.2091436386108398e-01</leafValues></_>
    <_>
      <internalNodes>
        0 -1 2139 -1.3741311704507098e-05</internalNodes>
      <leafValues>
        -8.2033884525299072e-01 1.9033604860305786e-01</leafValues></_>
    <_>
      <internalNodes>
        0 -1 153745 5.2531843539327383e-04</internalNodes>
      <leafValues>
        -3.4297099709510803e-01 4.3813663721084595e-01</leafValues></_></weakClassifiers></stage14>
</opencv_storage>
